{
  "features_info":
    {
      "float_features":
        [
          {
            "borders":
              [
                0.063473686575889587,
                0.13788530230522156,
                0.18652158975601196,
                0.22169619798660278,
                0.25208249688148499,
                0.28320759534835815,
                0.31192004680633545,
                0.34826627373695374,
                0.38009080290794373,
                0.41082179546356201,
                0.4421563446521759,
                0.47632145881652832,
                0.50812315940856934,
                0.5393986701965332,
                0.57513105869293213,
                0.60336148738861084,
                0.63186097145080566,
                0.65867817401885986,
                0.69160813093185425,
                0.72230780124664307,
                0.75208425521850586,
                0.78531551361083984,
                0.81361794471740723,
                0.84778904914855957,
                0.87766337394714355,
                0.90909099578857422,
                0.9682997465133667
              ],
            "feature_id":"",
            "feature_index":0,
            "flat_feature_index":0,
            "has_nans":false,
            "nan_value_treatment":"AsIs"
          },
          {
            "borders":
              [
                0.036312848329544067,
                0.19273743033409119,
                0.23184357583522797,
                0.26536315679550171,
                0.29888266324996948,
                0.33240222930908203,
                0.36592179536819458,
                0.39385473728179932,
                0.42178770899772644,
                0.44972068071365356,
                0.46648043394088745,
                0.48324024677276611,
                0.51675975322723389,
                0.5446927547454834,
                0.57821226119995117,
                0.60614526271820068,
                0.63966476917266846,
                0.67318439483642578,
                0.70111727714538574,
                0.72905027866363525,
                0.75698328018188477,
                0.79608941078186035,
                0.82402235269546509,
                0.85195529460906982,
                0.87988829612731934,
                0.91340780258178711,
                0.94134080410003662,
                0.97486031055450439
              ],
            "feature_id":"",
            "feature_index":1,
            "flat_feature_index":1,
            "has_nans":false,
            "nan_value_treatment":"AsIs"
          },
          {
            "borders":
              [
                0.03364747017621994,
                0.065423473715782166,
                0.093939200043678284,
                0.12304031848907471,
                0.13448421657085419,
                0.15345984697341919,
                0.18224446475505829,
                0.21046259999275208,
                0.24124425649642944,
                0.26836204528808594,
                0.30338820815086365,
                0.33730798959732056,
                0.36735475063323975,
                0.40415748953819275,
                0.43042466044425964,
                0.45724296569824219,
                0.48782366514205933,
                0.52037066221237183,
                0.54800546169281006,
                0.58095890283584595,
                0.60925412178039551,
                0.64336258172988892,
                0.67045140266418457,
                0.70338106155395508,
                0.73875272274017334,
                0.77304351329803467,
                0.80757349729537964,
                0.83651053905487061,
                0.87054914236068726,
                0.90407782793045044,
                0.93212425708770752,
                0.96135115623474121
              ],
            "feature_id":"",
            "feature_index":2,
            "flat_feature_index":2,
            "has_nans":false,
            "nan_value_treatment":"AsIs"
          },
          {
            "borders":
              [
                0.087301582098007202,
                0.1190476194024086,
                0.14550265669822693,
                0.1825396716594696,
                0.2142857164144516,
                0.24074074625968933,
                0.26719576120376587,
                0.29365080595016479,
                0.33068782091140747,
                0.3571428656578064,
                0.3888888955116272,
                0.420634925365448,
                0.44708997011184692,
                0.45767194032669067,
                0.47883599996566772,
                0.51058202981948853,
                0.54232805967330933,
                0.56878304481506348,
                0.60052907466888428,
                0.63227510452270508,
                0.66402113437652588,
                0.70105820894241333,
                0.73809522390365601,
                0.76984125375747681,
                0.80687832832336426,
                0.83862435817718506,
                0.87037038803100586,
                0.90211641788482666,
                0.92857146263122559
              ],
            "feature_id":"",
            "feature_index":3,
            "flat_feature_index":3,
            "has_nans":false,
            "nan_value_treatment":"AsIs"
          },
          {
            "borders":
              [
                0.062255963683128357,
                0.095216065645217896,
                0.18614359200000763,
                0.2148192822933197,
                0.24553003907203674,
                0.27358803153038025,
                0.30659538507461548,
                0.33643794059753418,
                0.36833935976028442,
                0.40207242965698242,
                0.42928364872932434,
                0.46371299028396606,
                0.49382507801055908,
                0.53243941068649292,
                0.56054055690765381,
                0.59356880187988281,
                0.62259852886199951,
                0.65846788883209229,
                0.68863290548324585,
                0.72250080108642578,
                0.75881969928741455,
                0.79309999942779541,
                0.83153033256530762,
                0.85650944709777832,
                0.88398981094360352,
                0.91746115684509277,
                0.94541990756988525,
                0.9720386266708374
              ],
            "feature_id":"",
            "feature_index":4,
            "flat_feature_index":4,
            "has_nans":false,
            "nan_value_treatment":"AsIs"
          },
          {
            "borders":
              [
                0.030433211475610733,
                0.054830692708492279,
                0.082077443599700928,
                0.11487312614917755,
                0.15148396790027618,
                0.18621969223022461,
                0.3225751519203186,
                0.35204678773880005,
                0.38172096014022827,
                0.41540443897247314,
                0.44562488794326782,
                0.47569870948791504,
                0.50755870342254639,
                0.53425347805023193,
                0.5635802149772644,
                0.59242123365402222,
                0.62806177139282227,
                0.65609544515609741,
                0.68881988525390625,
                0.71937185525894165,
                0.77829957008361816,
                0.81010270118713379,
                0.84188038110733032,
                0.87469732761383057,
                0.93259328603744507,
                0.96687984466552734
              ],
            "feature_id":"",
            "feature_index":5,
            "flat_feature_index":5,
            "has_nans":false,
            "nan_value_treatment":"AsIs"
          },
          {
            "borders":
              [
                0.032210737466812134,
                0.12879741191864014,
                0.16347262263298035,
                0.19865089654922485,
                0.23390685021877289,
                0.30589562654495239,
                0.33335065841674805,
                0.36176514625549316,
                0.39160984754562378,
                0.42290753126144409,
                0.45514822006225586,
                0.48880267143249512,
                0.51221716403961182,
                0.54369199275970459,
                0.57586252689361572,
                0.60809421539306641,
                0.63579565286636353,
                0.70141351222991943,
                0.72685074806213379,
                0.75354975461959839,
                0.77995407581329346,
                0.81025636196136475,
                0.84312593936920166,
                0.90613758563995361,
                0.94070190191268921,
                0.9721229076385498
              ],
            "feature_id":"",
            "feature_index":6,
            "flat_feature_index":6,
            "has_nans":false,
            "nan_value_treatment":"AsIs"
          },
          {
            "borders":
              [
                0.061701707541942596,
                0.089396148920059204,
                0.12222039699554443,
                0.13654053211212158,
                0.25278347730636597,
                0.29080092906951904,
                0.39309066534042358,
                0.41995829343795776,
                0.45314818620681763,
                0.48219132423400879,
                0.54662370681762695,
                0.58039689064025879,
                0.61063146591186523,
                0.64223933219909668,
                0.67164736986160278,
                0.70043516159057617,
                0.73523962497711182,
                0.79318273067474365,
                0.82545697689056396,
                0.88711118698120117,
                0.91530096530914307
              ],
            "feature_id":"",
            "feature_index":7,
            "flat_feature_index":7,
            "has_nans":false,
            "nan_value_treatment":"AsIs"
          },
          {
            "borders":
              [
                0.030801566317677498,
                0.090903386473655701,
                0.12023185193538666,
                0.13788530230522156,
                0.15405412018299103,
                0.22169619798660278,
                0.25208249688148499,
                0.41082179546356201,
                0.4421563446521759,
                0.47632145881652832,
                0.50812315940856934,
                0.5393986701965332,
                0.57513105869293213,
                0.60336148738861084,
                0.63186097145080566,
                0.65867817401885986,
                0.69160813093185425,
                0.72230780124664307,
                0.75208425521850586,
                0.78531551361083984,
                0.81361794471740723,
                0.84778904914855957,
                0.90909099578857422
              ],
            "feature_id":"",
            "feature_index":8,
            "flat_feature_index":8,
            "has_nans":false,
            "nan_value_treatment":"AsIs"
          },
          {
            "borders":
              [
                0.027055535465478897,
                0.12148851156234741,
                0.18614359200000763,
                0.2148192822933197,
                0.30659538507461548,
                0.33643794059753418,
                0.36833935976028442,
                0.40207242965698242,
                0.42928364872932434,
                0.46371299028396606,
                0.49382507801055908,
                0.53243941068649292,
                0.56054055690765381,
                0.59356880187988281,
                0.62259852886199951,
                0.65846788883209229,
                0.68863290548324585,
                0.72250080108642578,
                0.75881969928741455,
                0.79309999942779541,
                0.83153033256530762,
                0.85650944709777832,
                0.88398981094360352,
                0.91746115684509277,
                0.9720386266708374
              ],
            "feature_id":"",
            "feature_index":9,
            "flat_feature_index":9,
            "has_nans":false,
            "nan_value_treatment":"AsIs"
          },
          {
            "borders":
              [
                0.072143986821174622,
                0.078176066279411316,
                0.08364240825176239,
                0.096261985599994659,
                0.10771401971578598,
                0.11964517831802368,
                0.13240504264831543,
                0.1489604115486145,
                0.16164705157279968,
                0.17569062113761902,
                0.19073471426963806,
                0.20763587951660156,
                0.23199152946472168,
                0.25225567817687988,
                0.26810956001281738,
                0.28877940773963928,
                0.31295707821846008,
                0.33775883913040161,
                0.3597865104675293,
                0.37932643294334412,
                0.4088255763053894,
                0.43921202421188354,
                0.47698643803596497,
                0.51848769187927246,
                0.55784446001052856,
                0.6070866584777832,
                0.66759395599365234
              ],
            "feature_id":"",
            "feature_index":10,
            "flat_feature_index":10,
            "has_nans":false,
            "nan_value_treatment":"AsIs"
          },
          {
            "borders":
              [
                0.14404931664466858,
                0.16996224224567413,
                0.19302594661712646,
                0.21416419744491577,
                0.23436470329761505,
                0.2527371346950531,
                0.26893612742424011,
                0.29011642932891846,
                0.31278938055038452,
                0.3365599513053894,
                0.35881718993186951,
                0.37700062990188599,
                0.39661037921905518,
                0.41848397254943848,
                0.44186708331108093,
                0.45949497818946838,
                0.48159095644950867,
                0.50395715236663818,
                0.52665317058563232,
                0.55262959003448486,
                0.62217611074447632,
                0.66254240274429321,
                0.70870435237884521,
                0.75820344686508179
              ],
            "feature_id":"",
            "feature_index":11,
            "flat_feature_index":11,
            "has_nans":false,
            "nan_value_treatment":"AsIs"
          },
          {
            "borders":
              [
                0.06009100005030632,
                0.078913182020187378,
                0.10921046882867813,
                0.11990636587142944,
                0.14187145233154297,
                0.16133245825767517,
                0.18128287792205811,
                0.20175650715827942,
                0.22205941379070282,
                0.24626129865646362,
                0.26612669229507446,
                0.28545224666595459,
                0.30403482913970947,
                0.3255811333656311,
                0.34468322992324829,
                0.36180984973907471,
                0.383241206407547,
                0.40543588995933533,
                0.42426964640617371,
                0.44462531805038452,
                0.46522042155265808,
                0.48572862148284912,
                0.51064097881317139,
                0.53200256824493408,
                0.55999881029129028,
                0.58588767051696777,
                0.61851775646209717
              ],
            "feature_id":"",
            "feature_index":12,
            "flat_feature_index":12,
            "has_nans":false,
            "nan_value_treatment":"AsIs"
          },
          {
            "borders":
              [
                0.0082359164953231812,
                0.024342596530914307,
                0.034870699048042297,
                0.040588237345218658,
                0.047050245106220245,
                0.051878951489925385,
                0.061958141624927521,
                0.071864016354084015,
                0.078465193510055542,
                0.0845479816198349,
                0.091204389929771423,
                0.093566089868545532,
                0.09675896167755127,
                0.10203056037425995,
                0.11567991971969604,
                0.12400759756565094,
                0.15023285150527954,
                0.16396646201610565,
                0.18350613117218018,
                0.22915148735046387,
                0.26212906837463379
              ],
            "feature_id":"",
            "feature_index":13,
            "flat_feature_index":13,
            "has_nans":false,
            "nan_value_treatment":"AsIs"
          },
          {
            "borders":
              [
                0.015769079327583313,
                0.021256035193800926,
                0.031805254518985748,
                0.038142696022987366,
                0.042833030223846436,
                0.053724832832813263,
                0.059821084141731262,
                0.065315932035446167,
                0.070080310106277466,
                0.084475889801979065,
                0.09096778929233551,
                0.09572235494852066,
                0.10191618651151657,
                0.10865349322557449,
                0.12322127819061279,
                0.13335435092449188,
                0.14508847892284393,
                0.15841463208198547,
                0.21474242210388184
              ],
            "feature_id":"",
            "feature_index":14,
            "flat_feature_index":14,
            "has_nans":false,
            "nan_value_treatment":"AsIs"
          }
        ]
    },
  "model_info":
    {
      "catboost_version_info":"Git info:\n    Commit: b1bd2a6d77219e82a1acfcedfccb8e6f6c1ee084\n    Branch: tags/v1.2.10\n    Author: akhropov <akhropov@yandex-team.com>\n    Summary: CatBoost release 1.2.10. commit_hash:f8e0038b19555d36a9ba7b81b6730254b352960d\n    git-svn info:\n    Last Changed Rev: 9293085\n\nOther info:\n    Build by: runneradmin\n    Top src dir: D:/a/catboost/catboost/catboost\n",
      "class_params":
        {
          "class_label_type":"Integer",
          "class_names":
            [
              0,
              1
            ],
          "class_to_label":
            [
              0,
              1
            ],
          "classes_count":0
        },
      "model_guid":"899ddbfd-bec283dc-1617fb44-812a5496",
      "output_options":"{\"name\":\"experiment\",\"verbose\":0,\"test_error_log\":\"test_error.tsv\",\"json_log\":\"catboost_training.json\",\"result_model_file\":\"model\",\"roc_file\":\"\",\"eval_file_name\":\"\",\"use_best_model\":true,\"allow_writing_files\":true,\"prediction_type\":[\"RawFormulaVal\"],\"fstr_internal_file\":\"\",\"output_columns\":[\"SampleId\",\"RawFormulaVal\",\"Label\"],\"snapshot_interval\":600,\"time_left_log\":\"time_left.tsv\",\"fstr_type\":\"FeatureImportance\",\"profile_log\":\"catboost_profile.log\",\"train_dir\":\"catboost_info\",\"learn_error_log\":\"learn_error.tsv\",\"training_options_file\":\"\",\"snapshot_file\":\"experiment.cbsnapshot\",\"save_snapshot\":false,\"model_format\":[\"CatboostBinary\"],\"final_feature_calcer_computation_mode\":\"Default\",\"metric_period\":1,\"output_borders\":\"\",\"final_ctr_computation_mode\":\"Default\",\"best_model_min_trees\":1,\"fstr_regular_file\":\"\"}",
      "params":
        {
          "boosting_options":
            {
              "approx_on_full_history":false,
              "boost_from_average":false,
              "boosting_type":"Plain",
              "fold_len_multiplier":2,
              "fold_permutation_block":0,
              "iterations":408,
              "learning_rate":0.038457602260000001,
              "model_shrink_mode":"Constant",
              "model_shrink_rate":0,
              "od_config":
                {
                  "stop_pvalue":0,
                  "type":"Iter",
                  "wait_iterations":50
                },
              "permutation_count":4,
              "posterior_sampling":false
            },
          "cat_feature_params":
            {
              "combinations_ctrs":
                [
                  {
                    "ctr_binarization":
                      {
                        "border_count":15,
                        "border_type":"Uniform"
                      },
                    "ctr_type":"Borders",
                    "prior_estimation":"No",
                    "priors":
                      [
                        [
                          0,
                          1
                        ],
                        [
                          0.5,
                          1
                        ],
                        [
                          1,
                          1
                        ]
                      ],
                    "target_binarization":
                      {
                        "border_count":1,
                        "border_type":"MinEntropy"
                      }
                  },
                  {
                    "ctr_binarization":
                      {
                        "border_count":15,
                        "border_type":"Uniform"
                      },
                    "ctr_type":"Counter",
                    "prior_estimation":"No",
                    "priors":
                      [
                        [
                          0,
                          1
                        ]
                      ]
                  }
                ],
              "counter_calc_method":"SkipTest",
              "ctr_leaf_count_limit":18446744073709551615,
              "max_ctr_complexity":4,
              "one_hot_max_size":2,
              "per_feature_ctrs":
                {
                },
              "simple_ctrs":
                [
                  {
                    "ctr_binarization":
                      {
                        "border_count":15,
                        "border_type":"Uniform"
                      },
                    "ctr_type":"Borders",
                    "prior_estimation":"No",
                    "priors":
                      [
                        [
                          0,
                          1
                        ],
                        [
                          0.5,
                          1
                        ],
                        [
                          1,
                          1
                        ]
                      ],
                    "target_binarization":
                      {
                        "border_count":1,
                        "border_type":"MinEntropy"
                      }
                  },
                  {
                    "ctr_binarization":
                      {
                        "border_count":15,
                        "border_type":"Uniform"
                      },
                    "ctr_type":"Counter",
                    "prior_estimation":"No",
                    "priors":
                      [
                        [
                          0,
                          1
                        ]
                      ]
                  }
                ],
              "store_all_simple_ctr":false,
              "target_binarization":
                {
                  "border_count":1,
                  "border_type":"MinEntropy"
                }
            },
          "data_processing_options":
            {
              "allow_const_label":false,
              "auto_class_weights":"None",
              "class_names":
                [
                  0,
                  1
                ],
              "class_weights":
                [
                  1,
                  1
                ],
              "classes_count":0,
              "dev_default_value_fraction_for_sparse":0.82999998330000002,
              "dev_group_features":false,
              "dev_leafwise_scoring":false,
              "dev_sparse_array_indexing":"Indices",
              "embedding_processing_options":
                {
                  "embedding_processing":
                    {
                      "default":
                        [
                          "LDA",
                          "KNN"
                        ]
                    }
                },
              "eval_fraction":0,
              "float_features_binarization":
                {
                  "border_count":32,
                  "border_type":"GreedyLogSum",
                  "dev_max_subset_size_for_build_borders":200000,
                  "nan_mode":"Min"
                },
              "force_unit_auto_pair_weights":false,
              "has_time":false,
              "ignored_features":
                [
                ],
              "per_float_feature_quantization":
                {
                },
              "target_border":null,
              "text_processing_options":
                {
                  "dictionaries":
                    [
                      {
                        "dictionary_id":"BiGram",
                        "end_of_sentence_token_policy":"Skip",
                        "end_of_word_token_policy":"Insert",
                        "gram_order":"2",
                        "max_dictionary_size":"50000",
                        "occurrence_lower_bound":"5",
                        "skip_step":"0",
                        "start_token_id":"0",
                        "token_level_type":"Word"
                      },
                      {
                        "dictionary_id":"Word",
                        "end_of_sentence_token_policy":"Skip",
                        "end_of_word_token_policy":"Insert",
                        "gram_order":"1",
                        "max_dictionary_size":"50000",
                        "occurrence_lower_bound":"5",
                        "skip_step":"0",
                        "start_token_id":"0",
                        "token_level_type":"Word"
                      }
                    ],
                  "feature_processing":
                    {
                      "default":
                        [
                          {
                            "dictionaries_names":
                              [
                                "BiGram",
                                "Word"
                              ],
                            "feature_calcers":
                              [
                                "BoW"
                              ],
                            "tokenizers_names":
                              [
                                "Space"
                              ]
                          },
                          {
                            "dictionaries_names":
                              [
                                "Word"
                              ],
                            "feature_calcers":
                              [
                                "NaiveBayes"
                              ],
                            "tokenizers_names":
                              [
                                "Space"
                              ]
                          }
                        ]
                    },
                  "tokenizers":
                    [
                      {
                        "delimiter":" ",
                        "languages":
                          [
                          ],
                        "lemmatizing":"0",
                        "lowercasing":"0",
                        "number_process_policy":"LeaveAsIs",
                        "number_token":"🔢",
                        "separator_type":"ByDelimiter",
                        "skip_empty":"1",
                        "split_by_set":"0",
                        "subtokens_policy":"SingleToken",
                        "token_types":
                          [
                            "Number",
                            "Unknown",
                            "Word"
                          ],
                        "tokenizer_id":"Space"
                      }
                    ]
                }
            },
          "detailed_profile":false,
          "flat_params":
            {
              "border_count":32,
              "class_names":
                [
                  0,
                  1
                ],
              "class_weights":
                [
                  1,
                  1
                ],
              "depth":9,
              "eval_metric":"AUC",
              "iterations":408,
              "l2_leaf_reg":3.6942980219999999,
              "learning_rate":0.038457602629999997,
              "loss_function":"Logloss",
              "od_type":"Iter",
              "od_wait":50,
              "random_seed":42,
              "verbose":0
            },
          "logging_level":"Silent",
          "loss_function":
            {
              "params":
                {
                },
              "type":"Logloss"
            },
          "metadata":
            {
            },
          "metrics":
            {
              "custom_metrics":
                [
                ],
              "eval_metric":
                {
                  "params":
                    {
                    },
                  "type":"AUC"
                },
              "objective_metric":
                {
                  "params":
                    {
                    },
                  "type":"Logloss"
                }
            },
          "pool_metainfo_options":
            {
              "tags":
                {
                }
            },
          "random_seed":42,
          "system_options":
            {
              "file_with_hosts":"hosts.txt",
              "node_port":0,
              "node_type":"SingleHost",
              "thread_count":16,
              "used_ram_limit":""
            },
          "task_type":"CPU",
          "tree_learner_options":
            {
              "bayesian_matrix_reg":0.1000000015,
              "bootstrap":
                {
                  "mvs_reg":null,
                  "subsample":0.80000001190000003,
                  "type":"MVS"
                },
              "depth":9,
              "dev_efb_max_buckets":1024,
              "dev_leafwise_approxes":false,
              "dev_score_calc_obj_block_size":5000000,
              "grow_policy":"SymmetricTree",
              "l2_leaf_reg":3.694298029,
              "leaf_estimation_backtracking":"AnyImprovement",
              "leaf_estimation_iterations":10,
              "leaf_estimation_method":"Newton",
              "max_leaves":512,
              "min_data_in_leaf":1,
              "model_size_reg":0.5,
              "monotone_constraints":
                {
                },
              "penalties":
                {
                  "feature_weights":
                    {
                    },
                  "first_feature_use_penalties":
                    {
                    },
                  "penalties_coefficient":1,
                  "per_object_feature_penalties":
                    {
                    }
                },
              "random_score_type":"NormalWithModelSizeDecrease",
              "random_strength":1,
              "rsm":1,
              "sampling_frequency":"PerTree",
              "score_function":"Cosine",
              "sparse_features_conflict_fraction":0
            }
        },
      "train_finish_time":"2026-04-10T06:44:33Z",
      "training":"{\"metrics\":{\"best_iteration\":180,\"learn_best_error\":{\"Logloss\":0.023298865006376693},\"test_metrics_history\":[[{\"Logloss\":0.6442142421839173,\"AUC\":0.9634698275862069}],[{\"Logloss\":0.6057797394048677,\"AUC\":0.9683042711598746}],[{\"Logloss\":0.5653932239045137,\"AUC\":0.9756759404388715}],[{\"Logloss\":0.5276878748648247,\"AUC\":0.9855015673981191}],[{\"Logloss\":0.4904431640516749,\"AUC\":0.9882641065830721}],[{\"Logloss\":0.45898208416733255,\"AUC\":0.9901841692789969}],[{\"Logloss\":0.4334103997540248,\"AUC\":0.9904290752351097}],[{\"Logloss\":0.40897820179095945,\"AUC\":0.9900470219435736}],[{\"Logloss\":0.3904443119468388,\"AUC\":0.9907817398119122}],[{\"Logloss\":0.37400881624095916,\"AUC\":0.9896845611285267}],[{\"Logloss\":0.3545796859941552,\"AUC\":0.9905760188087774}],[{\"Logloss\":0.33724430027799013,\"AUC\":0.9906152037617555}],[{\"Logloss\":0.3184175704781592,\"AUC\":0.9913597178683385}],[{\"Logloss\":0.30505174934597884,\"AUC\":0.9918985109717868}],[{\"Logloss\":0.2915027191996006,\"AUC\":0.9921238244514107}],[{\"Logloss\":0.28149266093043707,\"AUC\":0.9922217868338558}],[{\"Logloss\":0.2685601745201304,\"AUC\":0.9929565047021943}],[{\"Logloss\":0.2589702560724041,\"AUC\":0.993367946708464}],[{\"Logloss\":0.249155884987617,\"AUC\":0.9934855015673981}],[{\"Logloss\":0.2394942583863059,\"AUC\":0.9943475705329153}],[{\"Logloss\":0.23024948475444607,\"AUC\":0.9946022727272728}],[{\"Logloss\":0.22141818793265625,\"AUC\":0.9952096394984326}],[{\"Logloss\":0.21614068428860267,\"AUC\":0.9952390282131661}],[{\"Logloss\":0.20940781584601165,\"AUC\":0.995483934169279}],[{\"Logloss\":0.20457765284004387,\"AUC\":0.9953761755485894}],[{\"Logloss\":0.1988925669866863,\"AUC\":0.9954153605015674}],[{\"Logloss\":0.1934019755443681,\"AUC\":0.9959247648902821}],[{\"Logloss\":0.18916956735616608,\"AUC\":0.996169670846395}],[{\"Logloss\":0.18537898807307668,\"AUC\":0.9962872257053291}],[{\"Logloss\":0.18129735812958775,\"AUC\":0.9963166144200627}],[{\"Logloss\":0.1773153053371334,\"AUC\":0.9965419278996865}],[{\"Logloss\":0.17403218554010344,\"AUC\":0.9967770376175549}],[{\"Logloss\":0.17025855606284027,\"AUC\":0.9967182601880877}],[{\"Logloss\":0.16710242003417608,\"AUC\":0.996855407523511}],[{\"Logloss\":0.16542440393701302,\"AUC\":0.9969043887147335}],[{\"Logloss\":0.16126794699198796,\"AUC\":0.9970415360501568}],[{\"Logloss\":0.15778869029222642,\"AUC\":0.9971101097178683}],[{\"Logloss\":0.15589239648898498,\"AUC\":0.9970807210031348}],[{\"Logloss\":0.15319300685573387,\"AUC\":0.9970317398119122}],[{\"Logloss\":0.15097708854488992,\"AUC\":0.9970709247648902}],[{\"Logloss\":0.14787878617531738,\"AUC\":0.997257053291536}],[{\"Logloss\":0.14524665621767638,\"AUC\":0.9973354231974921}],[{\"Logloss\":0.14336696306980948,\"AUC\":0.9973942006269593}],[{\"Logloss\":0.14159576131897467,\"AUC\":0.9974333855799373}],[{\"Logloss\":0.1384411083293209,\"AUC\":0.9975313479623824}],[{\"Logloss\":0.1365706040517655,\"AUC\":0.9976097178683385}],[{\"Logloss\":0.13397774707954332,\"AUC\":0.9977272727272727}],[{\"Logloss\":0.13195597865756975,\"AUC\":0.9978644200626959}],[{\"Logloss\":0.13048066385988966,\"AUC\":0.9980015673981191}],[{\"Logloss\":0.12828475948716836,\"AUC\":0.9980897335423198}],[{\"Logloss\":0.1267794434265342,\"AUC\":0.9981681034482759}],[{\"Logloss\":0.1250092870507187,\"AUC\":0.998207288401254}],[{\"Logloss\":0.1232031003143925,\"AUC\":0.9982758620689656}],[{\"Logloss\":0.12233053667579599,\"AUC\":0.9982562695924765}],[{\"Logloss\":0.12062991908477576,\"AUC\":0.9983542319749217}],[{\"Logloss\":0.12013382257520301,\"AUC\":0.9982562695924765}],[{\"Logloss\":0.11872050830737417,\"AUC\":0.99828565830721}],[{\"Logloss\":0.11814573162541506,\"AUC\":0.9983934169278997}],[{\"Logloss\":0.11635549156714185,\"AUC\":0.9984423981191223}],[{\"Logloss\":0.11532366933328574,\"AUC\":0.9985305642633229}],[{\"Logloss\":0.11471993620354208,\"AUC\":0.9984521943573668}],[{\"Logloss\":0.11363380625212302,\"AUC\":0.9984521943573668}],[{\"Logloss\":0.11329467399327897,\"AUC\":0.9982170846394984}],[{\"Logloss\":0.1124531448082965,\"AUC\":0.998305250783699}],[{\"Logloss\":0.11093233729402584,\"AUC\":0.9984619905956112}],[{\"Logloss\":0.10967976730667679,\"AUC\":0.9985207680250784}],[{\"Logloss\":0.10814255650145904,\"AUC\":0.9986775078369906}],[{\"Logloss\":0.10733493239512365,\"AUC\":0.9986285266457681}],[{\"Logloss\":0.10696999946337064,\"AUC\":0.9985795454545454}],[{\"Logloss\":0.10636915141334996,\"AUC\":0.9985991379310345}],[{\"Logloss\":0.10559573624014124,\"AUC\":0.9985599529780564}],[{\"Logloss\":0.10497824380664902,\"AUC\":0.9985795454545454}],[{\"Logloss\":0.10482308577596924,\"AUC\":0.9984913793103448}],[{\"Logloss\":0.10384224637118471,\"AUC\":0.998550156739812}],[{\"Logloss\":0.10263052438382654,\"AUC\":0.9986579153605015}],[{\"Logloss\":0.10199677161187826,\"AUC\":0.9986383228840126}],[{\"Logloss\":0.10129050020014121,\"AUC\":0.9986677115987461}],[{\"Logloss\":0.1009226967678846,\"AUC\":0.9986383228840126}],[{\"Logloss\":0.10008253692766833,\"AUC\":0.9986677115987461}],[{\"Logloss\":0.09878600788955919,\"AUC\":0.9987558777429467}],[{\"Logloss\":0.09802710012717437,\"AUC\":0.9988048589341693}],[{\"Logloss\":0.09762035934036192,\"AUC\":0.9987950626959248}],[{\"Logloss\":0.09701569655859218,\"AUC\":0.9987754702194357}],[{\"Logloss\":0.09600626633515974,\"AUC\":0.9987950626959248}],[{\"Logloss\":0.0955009193128633,\"AUC\":0.9987852664576803}],[{\"Logloss\":0.09489971785377299,\"AUC\":0.9988146551724137}],[{\"Logloss\":0.09472418816977658,\"AUC\":0.9987656739811912}],[{\"Logloss\":0.09415422244298041,\"AUC\":0.9987264890282131}],[{\"Logloss\":0.09367385940935845,\"AUC\":0.9987558777429467}],[{\"Logloss\":0.09314736242424056,\"AUC\":0.9987950626959248}],[{\"Logloss\":0.0926474391149782,\"AUC\":0.9988146551724137}],[{\"Logloss\":0.09231196355875941,\"AUC\":0.9988636363636364}],[{\"Logloss\":0.09139364630570869,\"AUC\":0.9988832288401254}],[{\"Logloss\":0.09062792024642363,\"AUC\":0.9989615987460815}],[{\"Logloss\":0.09008074503176101,\"AUC\":0.9989811912225706}],[{\"Logloss\":0.08990844555351467,\"AUC\":0.9989322100313479}],[{\"Logloss\":0.08949815943973592,\"AUC\":0.9989028213166145}],[{\"Logloss\":0.0887984481268295,\"AUC\":0.9989615987460815}],[{\"Logloss\":0.08874398651243727,\"AUC\":0.998971394984326}],[{\"Logloss\":0.08863472409530979,\"AUC\":0.9989811912225706}],[{\"Logloss\":0.08850247596968734,\"AUC\":0.9989615987460815}],[{\"Logloss\":0.08791448160822987,\"AUC\":0.9990399686520376}],[{\"Logloss\":0.08741218408985912,\"AUC\":0.9990693573667712}],[{\"Logloss\":0.0870353622683775,\"AUC\":0.9990595611285267}],[{\"Logloss\":0.08637725409029823,\"AUC\":0.9991379310344828}],[{\"Logloss\":0.08614309834206187,\"AUC\":0.9991477272727273}],[{\"Logloss\":0.08568209270238182,\"AUC\":0.9991477272727273}],[{\"Logloss\":0.08531242895835908,\"AUC\":0.9991575235109718}],[{\"Logloss\":0.08522115597310231,\"AUC\":0.9991183385579937}],[{\"Logloss\":0.08479800394057377,\"AUC\":0.9991183385579937}],[{\"Logloss\":0.08438922803308029,\"AUC\":0.9991575235109718}],[{\"Logloss\":0.08414762117867496,\"AUC\":0.9990693573667712}],[{\"Logloss\":0.08403482335590555,\"AUC\":0.9990497648902821}],[{\"Logloss\":0.08380466244578527,\"AUC\":0.9990497648902821}],[{\"Logloss\":0.08332361631908973,\"AUC\":0.9990791536050156}],[{\"Logloss\":0.08294108498528098,\"AUC\":0.9991379310344828}],[{\"Logloss\":0.08276960965990687,\"AUC\":0.9991477272727273}],[{\"Logloss\":0.08224414349995567,\"AUC\":0.9991575235109718}],[{\"Logloss\":0.08186605992296936,\"AUC\":0.9991771159874608}],[{\"Logloss\":0.08144363037397556,\"AUC\":0.9992358934169279}],[{\"Logloss\":0.0809440791452175,\"AUC\":0.999255485893417}],[{\"Logloss\":0.08074628169261656,\"AUC\":0.9992750783699059}],[{\"Logloss\":0.08029348794243886,\"AUC\":0.9992358934169279}],[{\"Logloss\":0.0798285697572245,\"AUC\":0.9992652821316614}],[{\"Logloss\":0.07900492048307528,\"AUC\":0.999314263322884}],[{\"Logloss\":0.07879011386405124,\"AUC\":0.9993044670846395}],[{\"Logloss\":0.07845768804245883,\"AUC\":0.9993436520376175}],[{\"Logloss\":0.0783077936291143,\"AUC\":0.9993338557993731}],[{\"Logloss\":0.07816401187405607,\"AUC\":0.9993436520376175}],[{\"Logloss\":0.07740028768582172,\"AUC\":0.999353448275862}],[{\"Logloss\":0.07745748229132796,\"AUC\":0.9993338557993731}],[{\"Logloss\":0.0770778943919327,\"AUC\":0.9993828369905956}],[{\"Logloss\":0.07664372152119944,\"AUC\":0.9993828369905956}],[{\"Logloss\":0.0764870923909765,\"AUC\":0.999353448275862}],[{\"Logloss\":0.0762552653028717,\"AUC\":0.999353448275862}],[{\"Logloss\":0.07616617941933829,\"AUC\":0.9993632445141066}],[{\"Logloss\":0.07591866699503985,\"AUC\":0.9993632445141066}],[{\"Logloss\":0.07539637133406896,\"AUC\":0.9993436520376175}],[{\"Logloss\":0.07487780576398696,\"AUC\":0.9993632445141066}],[{\"Logloss\":0.07462225304382734,\"AUC\":0.9993730407523511}],[{\"Logloss\":0.07446651937749081,\"AUC\":0.9993828369905956}],[{\"Logloss\":0.07390181529692438,\"AUC\":0.9994710031347962}],[{\"Logloss\":0.07347218189379484,\"AUC\":0.9994612068965517}],[{\"Logloss\":0.07303296016218945,\"AUC\":0.9994416144200627}],[{\"Logloss\":0.07287779267364355,\"AUC\":0.9994514106583072}],[{\"Logloss\":0.07266910003638329,\"AUC\":0.9994416144200627}],[{\"Logloss\":0.07234232584845433,\"AUC\":0.9994807993730408}],[{\"Logloss\":0.07216139463829667,\"AUC\":0.9994710031347962}],[{\"Logloss\":0.07197926606033572,\"AUC\":0.9994710031347962}],[{\"Logloss\":0.07182169040334335,\"AUC\":0.9994905956112853}],[{\"Logloss\":0.07159932267373244,\"AUC\":0.9994416144200627}],[{\"Logloss\":0.07143166924238259,\"AUC\":0.9994318181818181}],[{\"Logloss\":0.07139040547049265,\"AUC\":0.9994318181818181}],[{\"Logloss\":0.07137803928310595,\"AUC\":0.9994318181818181}],[{\"Logloss\":0.07106138537768429,\"AUC\":0.9994514106583072}],[{\"Logloss\":0.0707800623176363,\"AUC\":0.9994514106583072}],[{\"Logloss\":0.07049620968552939,\"AUC\":0.9994416144200627}],[{\"Logloss\":0.07048840602873513,\"AUC\":0.9994220219435737}],[{\"Logloss\":0.07038499140440088,\"AUC\":0.9994416144200627}],[{\"Logloss\":0.0700722073127755,\"AUC\":0.9994318181818181}],[{\"Logloss\":0.06950915818092032,\"AUC\":0.9994807993730408}],[{\"Logloss\":0.06957788074684303,\"AUC\":0.9994807993730408}],[{\"Logloss\":0.06905003972461522,\"AUC\":0.9994612068965517}],[{\"Logloss\":0.06895882862875584,\"AUC\":0.9994612068965517}],[{\"Logloss\":0.06895366744732068,\"AUC\":0.9994710031347962}],[{\"Logloss\":0.06885002559669093,\"AUC\":0.9994514106583072}],[{\"Logloss\":0.06866188113978594,\"AUC\":0.9994514106583072}],[{\"Logloss\":0.06855763380497754,\"AUC\":0.9994514106583072}],[{\"Logloss\":0.06841692748478774,\"AUC\":0.9994416144200627}],[{\"Logloss\":0.0679764104574965,\"AUC\":0.9994807993730408}],[{\"Logloss\":0.06785181641997598,\"AUC\":0.9994710031347962}],[{\"Logloss\":0.06780872492073493,\"AUC\":0.9994710031347962}],[{\"Logloss\":0.06766501901204366,\"AUC\":0.9994710031347962}],[{\"Logloss\":0.06713836108197174,\"AUC\":0.9994710031347962}],[{\"Logloss\":0.0669315353339486,\"AUC\":0.9995003918495298}],[{\"Logloss\":0.06671962730142189,\"AUC\":0.9995003918495298}],[{\"Logloss\":0.06649645740784435,\"AUC\":0.9995199843260189}],[{\"Logloss\":0.06630168640107824,\"AUC\":0.9995591692789969}],[{\"Logloss\":0.06633484411509102,\"AUC\":0.9995297805642633}],[{\"Logloss\":0.06615714461283337,\"AUC\":0.9995395768025078}],[{\"Logloss\":0.06600990608644434,\"AUC\":0.9995689655172414}],[{\"Logloss\":0.0658984126478322,\"AUC\":0.9995493730407523}],[{\"Logloss\":0.06584504652861432,\"AUC\":0.9995297805642633}],[{\"Logloss\":0.0655690006026902,\"AUC\":0.9995493730407523}],[{\"Logloss\":0.0655823962960837,\"AUC\":0.9995395768025078}],[{\"Logloss\":0.06534652605617898,\"AUC\":0.9995493730407523}],[{\"Logloss\":0.0653017185619562,\"AUC\":0.9995199843260189}],[{\"Logloss\":0.06515532134775463,\"AUC\":0.9995101880877743}],[{\"Logloss\":0.0651210137666023,\"AUC\":0.9995101880877743}],[{\"Logloss\":0.06497445964574468,\"AUC\":0.9995199843260189}],[{\"Logloss\":0.06464492938178065,\"AUC\":0.9995297805642633}],[{\"Logloss\":0.06447641625267114,\"AUC\":0.9995493730407523}],[{\"Logloss\":0.06428022420875176,\"AUC\":0.9995297805642633}],[{\"Logloss\":0.06389197810616007,\"AUC\":0.9995591692789969}],[{\"Logloss\":0.0637906969415237,\"AUC\":0.9995591692789969}],[{\"Logloss\":0.06378968789145703,\"AUC\":0.9995395768025078}],[{\"Logloss\":0.06367271972381462,\"AUC\":0.9995395768025078}],[{\"Logloss\":0.06353722289187742,\"AUC\":0.9995493730407523}],[{\"Logloss\":0.06362019210180389,\"AUC\":0.9995297805642633}],[{\"Logloss\":0.06353282577352415,\"AUC\":0.9995395768025078}],[{\"Logloss\":0.06339629170319785,\"AUC\":0.9995395768025078}],[{\"Logloss\":0.06316262022513093,\"AUC\":0.9995395768025078}],[{\"Logloss\":0.06291149474454306,\"AUC\":0.9995689655172414}],[{\"Logloss\":0.06278346944274815,\"AUC\":0.9995101880877743}],[{\"Logloss\":0.06260999684471129,\"AUC\":0.9995297805642633}],[{\"Logloss\":0.06243650694706119,\"AUC\":0.9995395768025078}],[{\"Logloss\":0.06244166302204983,\"AUC\":0.9995395768025078}],[{\"Logloss\":0.062355456151728994,\"AUC\":0.9995395768025078}],[{\"Logloss\":0.0623937024937031,\"AUC\":0.9995297805642633}],[{\"Logloss\":0.062309474646625895,\"AUC\":0.9995199843260189}],[{\"Logloss\":0.06216310150482673,\"AUC\":0.9995101880877743}],[{\"Logloss\":0.062108676551259144,\"AUC\":0.9995101880877743}],[{\"Logloss\":0.06197161650704272,\"AUC\":0.9995297805642633}],[{\"Logloss\":0.061833530612139365,\"AUC\":0.9995297805642633}],[{\"Logloss\":0.06173446923974518,\"AUC\":0.9995199843260189}],[{\"Logloss\":0.06142302178117793,\"AUC\":0.9995297805642633}],[{\"Logloss\":0.06106512346378493,\"AUC\":0.9995297805642633}],[{\"Logloss\":0.06107880491568436,\"AUC\":0.9995297805642633}],[{\"Logloss\":0.060945749157581317,\"AUC\":0.9995297805642633}],[{\"Logloss\":0.060650960987737895,\"AUC\":0.9995199843260189}],[{\"Logloss\":0.060459880610746856,\"AUC\":0.9995591692789969}],[{\"Logloss\":0.06032758177979834,\"AUC\":0.9995591692789969}],[{\"Logloss\":0.0601702763648729,\"AUC\":0.9995493730407523}],[{\"Logloss\":0.05999497641095997,\"AUC\":0.9995591692789969}],[{\"Logloss\":0.059906328716408705,\"AUC\":0.9995591692789969}],[{\"Logloss\":0.05997381325538683,\"AUC\":0.9995493730407523}],[{\"Logloss\":0.05978854139380595,\"AUC\":0.9995493730407523}],[{\"Logloss\":0.05956668197853064,\"AUC\":0.9995689655172414}],[{\"Logloss\":0.059553489760288444,\"AUC\":0.9995591692789969}],[{\"Logloss\":0.05927568595320543,\"AUC\":0.9995493730407523}],[{\"Logloss\":0.059080532348240525,\"AUC\":0.9995689655172414}]],\"learn_metrics_history\":[{\"Logloss\":0.6435265100804479},{\"Logloss\":0.6009458920951927},{\"Logloss\":0.5592034329457649},{\"Logloss\":0.521733004908793},{\"Logloss\":0.4830635082740366},{\"Logloss\":0.451273027160358},{\"Logloss\":0.42559360748911873},{\"Logloss\":0.4007937053746088},{\"Logloss\":0.3813625090931876},{\"Logloss\":0.36290828125764135},{\"Logloss\":0.34391385885844583},{\"Logloss\":0.3257229943790346},{\"Logloss\":0.3071776675133265},{\"Logloss\":0.2929844147349374},{\"Logloss\":0.2795821355542107},{\"Logloss\":0.26862451019048317},{\"Logloss\":0.2561454952042987},{\"Logloss\":0.24651419053055312},{\"Logloss\":0.2366095648871528},{\"Logloss\":0.22771022838419405},{\"Logloss\":0.21927269113269024},{\"Logloss\":0.21188091821327268},{\"Logloss\":0.20649501937842332},{\"Logloss\":0.1997742152922963},{\"Logloss\":0.1944185236063735},{\"Logloss\":0.18874095266040689},{\"Logloss\":0.18413478033456818},{\"Logloss\":0.17990392884924564},{\"Logloss\":0.1756810768855756},{\"Logloss\":0.17134824940856075},{\"Logloss\":0.16704721704521835},{\"Logloss\":0.16322520081426056},{\"Logloss\":0.15902855623869083},{\"Logloss\":0.1555685601510539},{\"Logloss\":0.15318568174454714},{\"Logloss\":0.1493263901306057},{\"Logloss\":0.1457858615451389},{\"Logloss\":0.1433356200025675},{\"Logloss\":0.1400609143276543},{\"Logloss\":0.1374907635373875},{\"Logloss\":0.13444953643846586},{\"Logloss\":0.1318915520848616},{\"Logloss\":0.12974765640282668},{\"Logloss\":0.1269713925643706},{\"Logloss\":0.12434160354924687},{\"Logloss\":0.12211105036250489},{\"Logloss\":0.11966742334977748},{\"Logloss\":0.11785129314297242},{\"Logloss\":0.11619983368636297},{\"Logloss\":0.11398690332642557},{\"Logloss\":0.11233999285153193},{\"Logloss\":0.11048136966329225},{\"Logloss\":0.10849751217264525},{\"Logloss\":0.10716033840030198},{\"Logloss\":0.10538690414786898},{\"Logloss\":0.10367550797678868},{\"Logloss\":0.10197283964201878},{\"Logloss\":0.10098258243853311},{\"Logloss\":0.09936448815096525},{\"Logloss\":0.09787983663018694},{\"Logloss\":0.09661715392588822},{\"Logloss\":0.09529319130385612},{\"Logloss\":0.094083824814392},{\"Logloss\":0.09283804259203222},{\"Logloss\":0.0915615696675714},{\"Logloss\":0.09033812043812353},{\"Logloss\":0.08896188034511321},{\"Logloss\":0.08776616080079654},{\"Logloss\":0.08686106268415615},{\"Logloss\":0.08574560699701682},{\"Logloss\":0.08479732937282985},{\"Logloss\":0.08370919742494681},{\"Logloss\":0.0827500368694371},{\"Logloss\":0.0814271309006382},{\"Logloss\":0.08043575734599655},{\"Logloss\":0.07960205794500073},{\"Logloss\":0.07879940743364265},{\"Logloss\":0.07791418275549565},{\"Logloss\":0.07712990726476918},{\"Logloss\":0.07611410532012605},{\"Logloss\":0.07523406839146861},{\"Logloss\":0.07430879237692867},{\"Logloss\":0.07339764089091842},{\"Logloss\":0.07245085571480096},{\"Logloss\":0.07170339593305275},{\"Logloss\":0.07113001529413024},{\"Logloss\":0.07038432854068857},{\"Logloss\":0.06971175980306754},{\"Logloss\":0.06906283144286728},{\"Logloss\":0.06843575252240439},{\"Logloss\":0.06781869091338395},{\"Logloss\":0.06720968852393877},{\"Logloss\":0.06652598015392704},{\"Logloss\":0.06580709776781347},{\"Logloss\":0.06517508779892899},{\"Logloss\":0.06463048155878631},{\"Logloss\":0.06396095741522705},{\"Logloss\":0.0632574651536061},{\"Logloss\":0.06285425344356722},{\"Logloss\":0.06211811238797804},{\"Logloss\":0.06167365538309064},{\"Logloss\":0.06115307158707453},{\"Logloss\":0.06059300955472418},{\"Logloss\":0.06006483218293048},{\"Logloss\":0.05937999552217821},{\"Logloss\":0.058850928651335094},{\"Logloss\":0.058382467111697964},{\"Logloss\":0.057941430797785846},{\"Logloss\":0.05750437633532314},{\"Logloss\":0.05686567422929504},{\"Logloss\":0.056342905489305185},{\"Logloss\":0.05571010750784001},{\"Logloss\":0.05526492815808698},{\"Logloss\":0.05476287459730169},{\"Logloss\":0.05422860206759218},{\"Logloss\":0.053819265350676104},{\"Logloss\":0.05345183060575912},{\"Logloss\":0.05299419229952196},{\"Logloss\":0.05257106536244376},{\"Logloss\":0.0520547499679064},{\"Logloss\":0.05175082784303477},{\"Logloss\":0.05129738630076902},{\"Logloss\":0.05087939338504988},{\"Logloss\":0.05048944655345266},{\"Logloss\":0.050035518473116256},{\"Logloss\":0.04958773927882617},{\"Logloss\":0.04922752201277326},{\"Logloss\":0.04894999233956255},{\"Logloss\":0.04863753042683728},{\"Logloss\":0.04815729347193185},{\"Logloss\":0.04780908145814994},{\"Logloss\":0.047367298920203076},{\"Logloss\":0.0469672571698638},{\"Logloss\":0.0465655826813365},{\"Logloss\":0.04622542093244144},{\"Logloss\":0.045887074000398875},{\"Logloss\":0.045433656337302245},{\"Logloss\":0.045033808605212},{\"Logloss\":0.04459582584005006},{\"Logloss\":0.04421211147159105},{\"Logloss\":0.04394578411358996},{\"Logloss\":0.0435913515762544},{\"Logloss\":0.0432389905568393},{\"Logloss\":0.04292160953527698},{\"Logloss\":0.04258495503934523},{\"Logloss\":0.04232402437356343},{\"Logloss\":0.042052637616606756},{\"Logloss\":0.04174712752698919},{\"Logloss\":0.04148578793043635},{\"Logloss\":0.041198924486999036},{\"Logloss\":0.04079894243458254},{\"Logloss\":0.04052729599166178},{\"Logloss\":0.04019412188462808},{\"Logloss\":0.03994644117280724},{\"Logloss\":0.03964729488175799},{\"Logloss\":0.03930006788370195},{\"Logloss\":0.03894979629158414},{\"Logloss\":0.038802103630627076},{\"Logloss\":0.038542602730095854},{\"Logloss\":0.03821088525237799},{\"Logloss\":0.03791170612747121},{\"Logloss\":0.03766013609598127},{\"Logloss\":0.03724013434516059},{\"Logloss\":0.037046769788380896},{\"Logloss\":0.03678684503259793},{\"Logloss\":0.036530340967790245},{\"Logloss\":0.03630964670196199},{\"Logloss\":0.0359883405419769},{\"Logloss\":0.03572917096491711},{\"Logloss\":0.0353933164211506},{\"Logloss\":0.03514435220399},{\"Logloss\":0.03496994770748515},{\"Logloss\":0.0347982236477131},{\"Logloss\":0.03457050890616595},{\"Logloss\":0.03430205033232162},{\"Logloss\":0.034092056919151625},{\"Logloss\":0.03391046777764024},{\"Logloss\":0.03372501916542113},{\"Logloss\":0.0334559098842185},{\"Logloss\":0.03320901121518608},{\"Logloss\":0.032950047595959875},{\"Logloss\":0.032717395836198836},{\"Logloss\":0.03251022314988018},{\"Logloss\":0.03219850447629353},{\"Logloss\":0.03197824003550928},{\"Logloss\":0.03173165478057145},{\"Logloss\":0.03152905495513773},{\"Logloss\":0.0312977284892624},{\"Logloss\":0.031092039296324824},{\"Logloss\":0.030932007074729193},{\"Logloss\":0.03067390907538329},{\"Logloss\":0.030505745996705056},{\"Logloss\":0.030278989406818516},{\"Logloss\":0.030022968895185347},{\"Logloss\":0.029826291103691376},{\"Logloss\":0.029626804524930616},{\"Logloss\":0.02940731018735023},{\"Logloss\":0.0292076803335748},{\"Logloss\":0.02898389670024269},{\"Logloss\":0.028799119689654856},{\"Logloss\":0.02858483698073314},{\"Logloss\":0.0284528717375324},{\"Logloss\":0.028237645801430764},{\"Logloss\":0.02806383231436143},{\"Logloss\":0.02785417917935128},{\"Logloss\":0.027688236863400453},{\"Logloss\":0.02750906847265778},{\"Logloss\":0.027332520820725133},{\"Logloss\":0.027108522274871014},{\"Logloss\":0.026922634882919478},{\"Logloss\":0.02674138601956793},{\"Logloss\":0.0265484094992863},{\"Logloss\":0.026345051510233274},{\"Logloss\":0.02615253764885319},{\"Logloss\":0.025938007193551937},{\"Logloss\":0.025768047207398035},{\"Logloss\":0.02556948296154422},{\"Logloss\":0.025403418264851697},{\"Logloss\":0.02526112528101006},{\"Logloss\":0.025123264867934824},{\"Logloss\":0.024935726828418426},{\"Logloss\":0.02473859533271133},{\"Logloss\":0.024579330229423414},{\"Logloss\":0.024410520920731094},{\"Logloss\":0.02423596120962701},{\"Logloss\":0.02408482248607749},{\"Logloss\":0.023940250534033737},{\"Logloss\":0.023814129717473133},{\"Logloss\":0.023629163165980474},{\"Logloss\":0.02346813249662635},{\"Logloss\":0.023298865006376693}],\"test_best_error\":[{\"Logloss\":0.059080532348240525,\"AUC\":0.9995689655172414}]}}"
    },
  "oblivious_trees":
    [
      {
        "leaf_values":
          [
            -0.13754090889997839,
            0.02189822706295725,
            0.025508745144643238,
            0,
            0,
            0.036552358521239538,
            0,
            0,
            0,
            0,
            0,
            0,
            0,
            0,
            0,
            0,
            0,
            0.037481776844413707,
            0.083441765218551858,
            0.091752981559856936,
            0,
            0.11383982598881218,
            0,
            0.12136163115483758,
            0,
            0,
            0,
            0,
            0,
            0,
            0,
            0,
            -0.1594465705611898,
            -0.062907543195351842,
            -0.098592614487568175,
            0,
            0,
            0,
            0,
            0,
            0,
            0,
            0,
            0,
            0,
            0,
            0,
            0,
            -0.058703286075335606,
            0,
            -0.018033660409293748,
            0.10941339909942605,
            0,
            0,
            0,
            0.037481776844413707,
            0,
            0,
            0,
            0,
            0,
            0,
            0,
            0,
            0,
            0,
            0,
            0,
            0,
            0,
            0,
            0,
            0,
            0,
            0,
            0,
            0,
            0,
            0,
            0,
            0,
            0,
            0,
            0,
            0,
            0,
            0,
            0,
            0,
            0,
            0,
            0,
            0,
            0,
            0,
            0,
            0,
            0,
            0,
            0,
            0,
            0,
            0,
            0,
            0,
            0,
            0,
            0,
            0,
            0,
            0,
            0,
            0,
            0,
            0,
            0,
            0,
            0,
            0,
            0,
            0,
            0,
            0,
            0,
            0,
            0,
            0,
            0,
            -0.11102358529872375,
            -0.026639742295636377,
            -0.03178501689624836,
            0,
            0,
            0.082763185425515404,
            0,
            0,
            0,
            0,
            0,
            0,
            0,
            0,
            0,
            0,
            0,
            0.05870328607533562,
            0.041035594851977705,
            0.12759618518938171,
            0,
            0.14351927020558325,
            0,
            0.15577365427543011,
            0,
            0,
            0,
            0,
            0,
            0,
            0,
            0,
            -0.18674334616823979,
            -0.086262075493454132,
            -0.1530893476553761,
            0,
            0,
            -0.021898227062957257,
            0,
            0,
            0,
            0,
            0,
            0,
            0,
            0,
            0,
            0,
            -0.058703286075335606,
            -0.0059172179488363339,
            -0.04381712385646875,
            0.072671761717401903,
            0,
            0.10941339909942605,
            0,
            0.12136163115483758,
            0,
            0,
            0,
            0,
            0,
            0,
            0,
            0,
            -0.16169471174718206,
            -0.021410834900001712,
            0.034030906974508328,
            0,
            0,
            0.064405982291812866,
            0,
            0,
            -0.10580193212526531,
            -0.057222485535261998,
            0.0067643323012000142,
            0.037481776844413707,
            0,
            0.065558113193216749,
            0,
            0,
            0,
            0.05870328607533562,
            0.10439016565447833,
            0.091752981559856936,
            0,
            0.091752981559856936,
            0,
            0.13754090889997836,
            0.037481776844413707,
            0.073994823529999698,
            0.068617374035558759,
            0.15308934765537607,
            0,
            0.16767200595668369,
            0,
            0.18972688082079656,
            -0.16481342185099607,
            -0.11383982598881222,
            -0.11383982598881222,
            0,
            0,
            -0.021898227062957257,
            0,
            0,
            -0.21229994316508119,
            -0.1605889655611451,
            -0.1771810554918726,
            0,
            0,
            -0.034030906974508342,
            0,
            0,
            -0.036552358521239531,
            0.036552358521239538,
            -0.0096581429127372484,
            0.11779286302724308,
            0,
            0.072911205344961746,
            0,
            0.091752981559856936,
            -0.086262075493454174,
            -0.0033459649913643078,
            -0.033489957243947557,
            0.16579304248786603,
            0,
            0.095526081418960893,
            0,
            0.13530150011804132,
            -0.019330920403535411,
            0.047376404047065647,
            -0.0085046743494208033,
            0,
            0,
            0.091752981559856936,
            0,
            0,
            0,
            0,
            0,
            0,
            0,
            0,
            0,
            0,
            0,
            0,
            0.05870328607533562,
            0.10439016565447833,
            0,
            0.05870328607533562,
            0,
            0.13291223011929904,
            0,
            0,
            0,
            0,
            0,
            0,
            0,
            0,
            -0.13035226854560186,
            -0.072911205344961746,
            -0.11779286302724308,
            0,
            0,
            0.072911205344961746,
            0,
            0,
            0,
            0,
            0,
            0,
            0,
            0,
            0,
            0,
            -0.037481776844413707,
            0,
            0.010821546846447825,
            0.10439016565447833,
            0,
            0.072911205344961746,
            0,
            0.05870328607533562,
            0,
            0,
            0,
            0,
            0,
            0,
            0,
            0,
            0,
            0,
            0,
            0,
            0,
            0,
            0,
            0,
            0,
            0,
            0,
            0,
            0,
            0,
            0,
            0,
            0,
            0,
            0,
            0,
            0,
            0,
            0,
            0,
            0,
            0,
            0,
            0,
            0,
            0,
            0,
            0,
            0,
            0,
            0,
            0,
            0,
            0,
            0,
            0,
            0,
            0,
            0,
            0,
            0,
            0,
            0,
            0,
            0,
            0,
            0,
            0,
            0,
            0,
            0,
            0,
            0,
            0,
            0,
            0,
            0,
            0,
            0,
            0,
            -0.068818645188979163,
            0.032249178223042692,
            0.035130706984619724,
            0,
            0,
            0.13754090889997836,
            0,
            0,
            0,
            0,
            0,
            0,
            0,
            0,
            0,
            0,
            0,
            0.037481776844413707,
            0.12461250191577683,
            0.13035226854560186,
            0,
            0.12136163115483758,
            0,
            0.1453066977701733,
            0,
            0,
            0,
            0,
            0,
            0,
            0,
            0,
            -0.16579304248786608,
            -0.038798780914038385,
            -0.089607786266429137,
            0,
            0,
            -0.037481776844413707,
            0,
            0,
            0,
            0,
            0,
            0,
            0,
            0,
            0,
            0,
            -0.058703286075335606,
            0.10941339909942605,
            0.026653259342268629,
            0.14863009012270467,
            0,
            0.083441765218551858,
            0,
            0.098592614487568175,
            0,
            0,
            0,
            0,
            0,
            0,
            0,
            0,
            -0.061599075891052353,
            0.083441765218551858,
            0.034030906974508328,
            0,
            0,
            0.091752981559856936,
            0,
            0,
            -0.060470271868422361,
            0.032568968849506219,
            0.028365810901380503,
            0,
            0,
            0.15704176513255055,
            0,
            0,
            0,
            0.037481776844413707,
            0.072911205344961746,
            0.10439016565447833,
            0,
            0.10439016565447833,
            0,
            0.12759618518938171,
            0,
            0.10439016565447833,
            0.13035226854560186,
            0.14863009012270467,
            0,
            0.16276604138946474,
            0,
            0.17648283879497909,
            -0.13964772770030964,
            -0.021898227062957257,
            -0.091752981559856908,
            0,
            0,
            0.037481776844413707,
            0,
            0,
            -0.19417376305602588,
            -0.051307214860580715,
            -0.10169049088340115,
            0,
            0,
            0.055900063372689837,
            0,
            0,
            -0.058703286075335606,
            0.083441765218551858,
            0.041035594851977712,
            0.11383982598881218,
            0,
            0.083441765218551858,
            0,
            0.05870328607533562,
            -0.025508745144643255,
            0.044696296578724572,
            0.036321649227605418,
            0.15308934765537607,
            0,
            0.12136163115483758,
            0,
            0.12759618518938171
          ],
        "leaf_weights":
          [
            17,
            3,
            6,
            0,
            0,
            4,
            0,
            0,
            0,
            0,
            0,
            0,
            0,
            0,
            0,
            0,
            0,
            1,
            4,
            5,
            0,
            9,
            0,
            11,
            0,
            0,
            0,
            0,
            0,
            0,
            0,
            0,
            31,
            7,
            6,
            0,
            0,
            2,
            0,
            0,
            0,
            0,
            0,
            0,
            0,
            0,
            0,
            0,
            2,
            4,
            13,
            8,
            0,
            0,
            0,
            1,
            0,
            0,
            0,
            0,
            0,
            0,
            0,
            0,
            0,
            0,
            0,
            0,
            0,
            0,
            0,
            0,
            0,
            0,
            0,
            0,
            0,
            0,
            0,
            0,
            0,
            0,
            0,
            0,
            0,
            0,
            0,
            0,
            0,
            0,
            0,
            0,
            0,
            0,
            0,
            0,
            0,
            0,
            0,
            0,
            0,
            0,
            0,
            0,
            0,
            0,
            0,
            0,
            0,
            0,
            0,
            0,
            0,
            0,
            0,
            0,
            0,
            0,
            0,
            0,
            0,
            0,
            0,
            0,
            0,
            0,
            0,
            0,
            39,
            18,
            23,
            0,
            0,
            29,
            0,
            0,
            0,
            0,
            0,
            0,
            0,
            0,
            0,
            0,
            0,
            2,
            8,
            13,
            0,
            20,
            0,
            28,
            0,
            0,
            0,
            0,
            0,
            0,
            0,
            0,
            67,
            12,
            26,
            0,
            0,
            3,
            0,
            0,
            0,
            0,
            0,
            0,
            0,
            0,
            0,
            0,
            2,
            13,
            33,
            23,
            0,
            8,
            0,
            11,
            0,
            0,
            0,
            0,
            0,
            0,
            0,
            0,
            33,
            11,
            7,
            0,
            0,
            13,
            0,
            0,
            100,
            38,
            57,
            1,
            0,
            52,
            0,
            0,
            0,
            2,
            7,
            5,
            0,
            5,
            0,
            17,
            1,
            9,
            21,
            26,
            0,
            39,
            0,
            73,
            36,
            9,
            9,
            0,
            0,
            3,
            0,
            0,
            141,
            32,
            51,
            0,
            0,
            7,
            0,
            0,
            4,
            4,
            16,
            10,
            0,
            3,
            0,
            5,
            12,
            23,
            61,
            37,
            0,
            15,
            0,
            16,
            8,
            5,
            9,
            0,
            0,
            5,
            0,
            0,
            0,
            0,
            0,
            0,
            0,
            0,
            0,
            0,
            0,
            0,
            2,
            7,
            0,
            2,
            0,
            15,
            0,
            0,
            0,
            0,
            0,
            0,
            0,
            0,
            14,
            3,
            10,
            0,
            0,
            3,
            0,
            0,
            0,
            0,
            0,
            0,
            0,
            0,
            0,
            0,
            1,
            2,
            7,
            7,
            0,
            3,
            0,
            2,
            0,
            0,
            0,
            0,
            0,
            0,
            0,
            0,
            0,
            0,
            0,
            0,
            0,
            0,
            0,
            0,
            0,
            0,
            0,
            0,
            0,
            0,
            0,
            0,
            0,
            0,
            0,
            0,
            0,
            0,
            0,
            0,
            0,
            0,
            0,
            0,
            0,
            0,
            0,
            0,
            0,
            0,
            0,
            0,
            0,
            0,
            0,
            0,
            0,
            0,
            0,
            0,
            0,
            0,
            0,
            0,
            0,
            0,
            0,
            0,
            0,
            0,
            0,
            0,
            0,
            0,
            0,
            0,
            0,
            0,
            0,
            0,
            28,
            10,
            14,
            0,
            0,
            17,
            0,
            0,
            0,
            0,
            0,
            0,
            0,
            0,
            0,
            0,
            0,
            1,
            12,
            14,
            0,
            11,
            0,
            21,
            0,
            0,
            0,
            0,
            0,
            0,
            0,
            0,
            37,
            15,
            13,
            0,
            0,
            1,
            0,
            0,
            0,
            0,
            0,
            0,
            0,
            0,
            0,
            0,
            2,
            8,
            24,
            23,
            0,
            4,
            0,
            6,
            0,
            0,
            0,
            0,
            0,
            0,
            0,
            0,
            18,
            4,
            7,
            0,
            0,
            5,
            0,
            0,
            64,
            20,
            34,
            0,
            0,
            29,
            0,
            0,
            0,
            1,
            3,
            7,
            0,
            7,
            0,
            13,
            0,
            7,
            14,
            23,
            0,
            34,
            0,
            50,
            18,
            3,
            5,
            0,
            0,
            1,
            0,
            0,
            83,
            24,
            31,
            0,
            0,
            6,
            0,
            0,
            2,
            4,
            8,
            9,
            0,
            4,
            0,
            2,
            6,
            21,
            50,
            26,
            0,
            11,
            0,
            13
          ],
        "splits":
          [
            {
              "border":0.36180984973907471,
              "float_feature_index":12,
              "split_index":331,
              "split_type":"FloatFeature"
            },
            {
              "border":0.56054055690765381,
              "float_feature_index":9,
              "split_index":252,
              "split_type":"FloatFeature"
            },
            {
              "border":0.51064097881317139,
              "float_feature_index":12,
              "split_index":338,
              "split_type":"FloatFeature"
            },
            {
              "border":0.47569870948791504,
              "float_feature_index":5,
              "split_index":155,
              "split_type":"FloatFeature"
            },
            {
              "border":0.28877940773963928,
              "float_feature_index":10,
              "split_index":280,
              "split_type":"FloatFeature"
            },
            {
              "border":0.48782366514205933,
              "float_feature_index":2,
              "split_index":71,
              "split_type":"FloatFeature"
            },
            {
              "border":0.35204678773880005,
              "float_feature_index":5,
              "split_index":151,
              "split_type":"FloatFeature"
            },
            {
              "border":0.082077443599700928,
              "float_feature_index":5,
              "split_index":146,
              "split_type":"FloatFeature"
            },
            {
              "border":0.56878304481506348,
              "float_feature_index":3,
              "split_index":104,
              "split_type":"FloatFeature"
            }
          ]
      },
      {
        "leaf_values":
          [
            -0.18025845760016435,
            0.014439179081951531,
            -0.020344184087223632,
            0,
            -0.19379146816715093,
            -0.08880736477424514,
            -0.14241301528984665,
            0,
            0,
            0.11658907294491438,
            0.035315334424683251,
            0.17804520777812208,
            -0.11211770912246899,
            0.02008367130876889,
            -0.10979668973931812,
            0.066663948200498327,
            0,
            0,
            0,
            0,
            -0.077905018089196448,
            0,
            0,
            0,
            0,
            0,
            0,
            0,
            -0.036472443759647116,
            -0.0017713797300238508,
            -0.035791415614333383,
            0,
            -0.12052464466391531,
            0.0097931312392269838,
            -0.05637231633065734,
            0.039320460913251774,
            -0.10845820665051145,
            -0.069947633477232721,
            -0.054565741429420597,
            0,
            0,
            0.14771794125988885,
            0.054965150515293687,
            0.14930871749934596,
            -0.034301307267230532,
            0.082805574983698338,
            -0.036001502950100628,
            0.094237725375756129,
            -0.12429971333391616,
            -0.011547038076847326,
            -0.03558001573411277,
            0,
            -0.18194785796497542,
            -0.06198994797638329,
            -0.13261146525387285,
            0,
            0,
            0.034059607533946719,
            0.014400491997964152,
            0.088624935751020303,
            -0.10003474358141479,
            0.029010405620722973,
            -0.043555264990128358,
            0.067197855869293055,
            -0.024129278722134526,
            0.10663546517317761,
            0.01894946030131435,
            0,
            -0.11600873348253367,
            -0.021019177275695553,
            -0.094813606097428352,
            0,
            0.038675051387679307,
            0.10032245471480704,
            0.058076528563874935,
            0.11676086042381652,
            -0.035252122372878891,
            0.080892284868810477,
            -0.0070145919630058414,
            0.12873773465807556,
            0,
            0,
            0,
            0,
            0,
            0,
            -0.035944460226124457,
            0,
            0,
            0,
            0,
            0,
            0,
            0.035607375641007383,
            0,
            0,
            -0.044904823409560368,
            0.089891867185502863,
            0.015222653657608371,
            0,
            -0.069626399947882028,
            -0.057455370035760706,
            0,
            0,
            0,
            0.068635947408308876,
            0.036876757264246988,
            0.094456732737645446,
            0,
            0.036229412183260777,
            0,
            0,
            0,
            -0.036299365253550278,
            0.00096910901975657171,
            0,
            -0.12931557931917959,
            0.011271681616192327,
            -0.089535505712998661,
            0,
            0,
            0.035692772875762536,
            0,
            0,
            -0.055014619756758032,
            0.054510420849963541,
            0.010579434509909055,
            0.099883218270182969,
            -0.12447226948618488,
            0.0059123223657141788,
            -0.005066553098550329,
            0,
            -0.18699886927099285,
            -0.06203719006519625,
            -0.14874036911702967,
            0,
            0.039320460913251774,
            0.11040000593413432,
            0.010429249594094532,
            0.15601068404448756,
            -0.085159200403143898,
            0.024029976089048138,
            -0.049997589516249254,
            0.10877933654035155,
            0,
            0,
            0,
            0,
            0,
            0,
            -0.068076169771795605,
            0,
            0,
            0,
            0,
            0,
            0,
            0,
            -0.037315156985006363,
            0.01939655264326064,
            -0.15439514220931264,
            0.012562953504676524,
            -0.031544797449607156,
            0,
            -0.11824186537446456,
            -0.046474805846073171,
            0,
            0,
            0,
            0.11687517618403392,
            0.066817190309607227,
            0.15508214674592996,
            -0.033873347321033254,
            0.034704513984804002,
            -3.9143315097847169e-05,
            0.07918495461384055,
            -0.1008078256823918,
            0.036858052674205805,
            -0.036442191498249683,
            0,
            -0.17066263899762846,
            -0.09796273747460138,
            -0.11610324979161309,
            0,
            -0.035668765546380231,
            0.036374836684746795,
            0.022297139781654787,
            0.069077213363192433,
            -0.097775545760329527,
            -0.022482970890925932,
            -0.12788728709139541,
            0.13767995013470696,
            -0.087312568285268302,
            0.099842906748139004,
            0.083893131739085455,
            0,
            -0.10832767252590955,
            0.00012826706813297167,
            -0.088094844040215808,
            0,
            0,
            0.11319846847919696,
            0.035252122372878884,
            0.11643312717325617,
            -0.035094789198399083,
            0.066809186441857377,
            -0.033622483993637826,
            0.07065186240768144,
            0,
            0,
            0,
            0,
            0,
            0,
            0,
            0,
            0,
            0,
            0,
            0,
            0,
            0,
            0,
            0,
            -0.096632042061477685,
            0.11162539438448406,
            0.00036543523845797239,
            0,
            -0.078687595949742214,
            0.038370437745043291,
            0,
            0,
            0,
            0.093400698322893855,
            0.035252122372878884,
            0.10860041654079752,
            0,
            0,
            0,
            0.035298815996880124,
            -0.057233370392112647,
            0.018224927822409167,
            -0.03797236357263116,
            0,
            -0.11494605696281217,
            0.026097384038106686,
            -0.080861269308544634,
            0,
            0,
            0,
            0,
            0,
            -0.037042177282658108,
            0.096136206733087134,
            -0.021655293605888588,
            0.034867693847188422,
            0,
            0,
            -0.007197380308127584,
            0,
            0,
            0,
            -0.11801023773869312,
            0,
            0,
            0,
            0.12855393491899614,
            0.15399616772967978,
            0,
            0,
            -0.015880930122059177,
            0.16620196750558994,
            0,
            0,
            0,
            0,
            0,
            0,
            0,
            0,
            0,
            0,
            0,
            0,
            0,
            0,
            -0.022210380333010669,
            0.036233503773733029,
            0,
            0,
            0.00077413899738386924,
            0,
            0,
            0,
            -0.056944410356237964,
            0,
            0,
            0,
            0.045578455598660493,
            0.14764077962135705,
            0,
            0,
            -0.036904949265944634,
            0.10974990176825213,
            0,
            0,
            -0.038089627402982669,
            0,
            0,
            0,
            -0.069917791491563602,
            0,
            0,
            0,
            0,
            0.079255786825710509,
            0,
            0,
            -0.0096219627252569408,
            0.14243291093878416,
            0,
            0,
            0.082819708174498727,
            0,
            0,
            0,
            -0.059892309774506262,
            0,
            0,
            0,
            0.089051855961955653,
            0.11649402579802851,
            0,
            0,
            0.054332413730678528,
            0.10032135084444514,
            0,
            0,
            0,
            0,
            0,
            0,
            0,
            0,
            0,
            0,
            0,
            0,
            0,
            0,
            0,
            0,
            0,
            0,
            0,
            0,
            0,
            0,
            0,
            0,
            0,
            0,
            0.056312432462363338,
            0.1050307466725985,
            0,
            0,
            0,
            0.057276159568888339,
            0,
            0,
            -0.00035288748838486187,
            0,
            0,
            0,
            0,
            0,
            0,
            0,
            0,
            0.034999121123572806,
            0,
            0,
            0.10344999732518922,
            0.087863933347199774,
            0,
            0,
            0.077944462316027988,
            0,
            0,
            0,
            -0.099654727191390943,
            0,
            0,
            0,
            0.12504312791504787,
            0.16158925750376216,
            0,
            0,
            0.037920027658602098,
            0.14319058391995795,
            0,
            0,
            0,
            0,
            0,
            0,
            -0.034461914358022955,
            0,
            0,
            0,
            0,
            0,
            0,
            0,
            0.0029104547525297848,
            0,
            0,
            0,
            -0.00038539300284810347,
            0,
            0,
            0,
            -0.034461914358022955,
            0,
            0,
            0,
            0.072153801194632744,
            0.13585347921333046,
            0,
            0,
            -0.035532179211772694,
            0.055878551239161411,
            0,
            0,
            0,
            0,
            0,
            0,
            -0.068709212222063124,
            0,
            0,
            0,
            0.035252122372878884,
            0.069361290867938435,
            0,
            0,
            -0.097035110796671958,
            0.12884479478158592,
            0,
            0,
            0.072004377738919531,
            0,
            0,
            0,
            0,
            0,
            0,
            0,
            0.070251109871573486,
            0.099439016598018751,
            0,
            0,
            0.097395838234250687,
            0.10523881758791119,
            0,
            0,
            0,
            0,
            0,
            0,
            0,
            0,
            0,
            0,
            0,
            0,
            0,
            0,
            0,
            0,
            0,
            0,
            0.036993035796640587,
            0,
            0,
            0,
            -0.03797236357263116,
            0,
            0,
            0,
            0,
            0.078628641572132826,
            0,
            0,
            0,
            0,
            0,
            0,
            0,
            0,
            0,
            0,
            -0.035738695767040231,
            0,
            0,
            0,
            0.036993035796640587,
            0.035298815996880124,
            0,
            0,
            0.033479811110790167,
            0.087485187539489903
          ],
        "leaf_weights":
          [
            63,
            50,
            19,
            0,
            99,
            36,
            22,
            0,
            0,
            28,
            4,
            60,
            10,
            41,
            40,
            36,
            0,
            0,
            0,
            0,
            4,
            0,
            0,
            0,
            0,
            0,
            0,
            0,
            1,
            2,
            1,
            0,
            31,
            30,
            11,
            1,
            9,
            3,
            2,
            0,
            0,
            25,
            6,
            27,
            1,
            12,
            1,
            6,
            13,
            7,
            1,
            0,
            70,
            19,
            17,
            0,
            0,
            4,
            5,
            5,
            7,
            22,
            30,
            29,
            9,
            8,
            8,
            0,
            11,
            3,
            6,
            0,
            1,
            7,
            2,
            11,
            1,
            11,
            9,
            15,
            0,
            0,
            0,
            0,
            0,
            0,
            1,
            0,
            0,
            0,
            0,
            0,
            0,
            1,
            0,
            0,
            9,
            14,
            5,
            0,
            3,
            2,
            0,
            0,
            0,
            3,
            1,
            6,
            0,
            1,
            0,
            0,
            0,
            1,
            2,
            0,
            16,
            7,
            5,
            0,
            0,
            1,
            0,
            0,
            2,
            6,
            7,
            7,
            34,
            35,
            24,
            0,
            83,
            32,
            27,
            0,
            1,
            24,
            7,
            33,
            5,
            35,
            29,
            23,
            0,
            0,
            0,
            0,
            0,
            0,
            3,
            0,
            0,
            0,
            0,
            0,
            0,
            0,
            1,
            3,
            30,
            22,
            10,
            0,
            12,
            5,
            0,
            0,
            0,
            28,
            8,
            32,
            1,
            1,
            2,
            4,
            7,
            4,
            1,
            0,
            52,
            17,
            11,
            0,
            1,
            1,
            3,
            3,
            7,
            28,
            14,
            19,
            13,
            7,
            4,
            0,
            9,
            6,
            5,
            0,
            0,
            10,
            1,
            11,
            1,
            8,
            7,
            3,
            0,
            0,
            0,
            0,
            0,
            0,
            0,
            0,
            0,
            0,
            0,
            0,
            0,
            0,
            0,
            0,
            6,
            9,
            2,
            0,
            4,
            1,
            0,
            0,
            0,
            6,
            1,
            9,
            0,
            0,
            0,
            1,
            2,
            3,
            1,
            0,
            11,
            6,
            4,
            0,
            0,
            0,
            0,
            0,
            1,
            6,
            3,
            1,
            0,
            0,
            11,
            0,
            0,
            0,
            11,
            0,
            0,
            0,
            14,
            31,
            0,
            0,
            36,
            42,
            0,
            0,
            0,
            0,
            0,
            0,
            0,
            0,
            0,
            0,
            0,
            0,
            0,
            0,
            3,
            1,
            0,
            0,
            4,
            0,
            0,
            0,
            2,
            0,
            0,
            0,
            9,
            26,
            0,
            0,
            1,
            9,
            0,
            0,
            1,
            0,
            0,
            0,
            3,
            0,
            0,
            0,
            0,
            4,
            0,
            0,
            28,
            22,
            0,
            0,
            4,
            0,
            0,
            0,
            7,
            0,
            0,
            0,
            5,
            11,
            0,
            0,
            6,
            7,
            0,
            0,
            0,
            0,
            0,
            0,
            0,
            0,
            0,
            0,
            0,
            0,
            0,
            0,
            0,
            0,
            0,
            0,
            0,
            0,
            0,
            0,
            0,
            0,
            0,
            0,
            2,
            8,
            0,
            0,
            0,
            2,
            0,
            0,
            2,
            0,
            0,
            0,
            0,
            0,
            0,
            0,
            0,
            1,
            0,
            0,
            7,
            5,
            0,
            0,
            10,
            0,
            0,
            0,
            7,
            0,
            0,
            0,
            13,
            39,
            0,
            0,
            22,
            23,
            0,
            0,
            0,
            0,
            0,
            0,
            1,
            0,
            0,
            0,
            0,
            0,
            0,
            0,
            2,
            0,
            0,
            0,
            6,
            0,
            0,
            0,
            1,
            0,
            0,
            0,
            3,
            19,
            0,
            0,
            1,
            2,
            0,
            0,
            0,
            0,
            0,
            0,
            3,
            0,
            0,
            0,
            1,
            3,
            0,
            0,
            16,
            15,
            0,
            0,
            3,
            0,
            0,
            0,
            0,
            0,
            0,
            0,
            3,
            7,
            0,
            0,
            6,
            8,
            0,
            0,
            0,
            0,
            0,
            0,
            0,
            0,
            0,
            0,
            0,
            0,
            0,
            0,
            0,
            0,
            0,
            0,
            1,
            0,
            0,
            0,
            1,
            0,
            0,
            0,
            0,
            4,
            0,
            0,
            0,
            0,
            0,
            0,
            0,
            0,
            0,
            0,
            1,
            0,
            0,
            0,
            1,
            1,
            0,
            0,
            7,
            5
          ],
        "splits":
          [
            {
              "border":0.34468322992324829,
              "float_feature_index":12,
              "split_index":330,
              "split_type":"FloatFeature"
            },
            {
              "border":0.49382507801055908,
              "float_feature_index":4,
              "split_index":128,
              "split_type":"FloatFeature"
            },
            {
              "border":0.43042466044425964,
              "float_feature_index":2,
              "split_index":69,
              "split_type":"FloatFeature"
            },
            {
              "border":0.23199152946472168,
              "float_feature_index":10,
              "split_index":277,
              "split_type":"FloatFeature"
            },
            {
              "border":0.52665317058563232,
              "float_feature_index":11,
              "split_index":310,
              "split_type":"FloatFeature"
            },
            {
              "border":0.58039689064025879,
              "float_feature_index":7,
              "split_index":207,
              "split_type":"FloatFeature"
            },
            {
              "border":0.80687832832336426,
              "float_feature_index":3,
              "split_index":111,
              "split_type":"FloatFeature"
            },
            {
              "border":0.10191618651151657,
              "float_feature_index":14,
              "split_index":376,
              "split_type":"FloatFeature"
            },
            {
              "border":0.79309999942779541,
              "float_feature_index":9,
              "split_index":259,
              "split_type":"FloatFeature"
            }
          ]
      },
      {
        "leaf_values":
          [
            -0.10723069214718534,
            0,
            0,
            0,
            0,
            0,
            0,
            0,
            -0.13865597064565024,
            0,
            0,
            0,
            0,
            0,
            0,
            0,
            0,
            0,
            0,
            0,
            0,
            0,
            0,
            0,
            0,
            0,
            0,
            0,
            0,
            0,
            0,
            0,
            -0.062149660281805436,
            0,
            0,
            0,
            0,
            0,
            0,
            0,
            -0.065567472702771856,
            0,
            0,
            0,
            0,
            0,
            0,
            0,
            0,
            0,
            0,
            0,
            0,
            0,
            0,
            0,
            0,
            0,
            0,
            0,
            0,
            0,
            0,
            0,
            -0.11201692995917141,
            0,
            0,
            0,
            -0.047884575892880657,
            0,
            0,
            0,
            -0.17039344164720013,
            0,
            0,
            0,
            -0.15924840867304124,
            0,
            0,
            0,
            0,
            0,
            0,
            0,
            0,
            0,
            0,
            0,
            0,
            0,
            0,
            0,
            0,
            0,
            0,
            0,
            0.026422660033702198,
            0,
            0,
            0,
            0.030225515669817297,
            0,
            0,
            0,
            -0.091544190335072051,
            0,
            0,
            0,
            -0.041385014355162945,
            0,
            0,
            0,
            0,
            0,
            0,
            0,
            0,
            0,
            0,
            0,
            0,
            0,
            0,
            0,
            0,
            0,
            0,
            0,
            0,
            0,
            0,
            0,
            0,
            0,
            0,
            0,
            0,
            0,
            0,
            0,
            0,
            0,
            0,
            0,
            0,
            0,
            0,
            0,
            0,
            0,
            0,
            0,
            0,
            0,
            0,
            0,
            0,
            0,
            0,
            0,
            0,
            0,
            0,
            0,
            0,
            0,
            0,
            0,
            0,
            0,
            0,
            0,
            0,
            0,
            0,
            0,
            0,
            0,
            0,
            0,
            0,
            0,
            0,
            0,
            0,
            0,
            0,
            0,
            0,
            0,
            0,
            0,
            0,
            0,
            0,
            0,
            0,
            0,
            0,
            0,
            0,
            0,
            0,
            0,
            0,
            0,
            0,
            0,
            0,
            0,
            0,
            0,
            0,
            0,
            0,
            0,
            0,
            0,
            0,
            0,
            0,
            0,
            0,
            0,
            0,
            0,
            0,
            0,
            0,
            0,
